Language model created by QuickLM on Thu Feb  4 12:46:45 EST 2021
Copyright (c) 1996-2010 Carnegie Mellon University and Alexander I. Rudnicky

The model is in standard ARPA format, designed by Doug Paul while he was at MITRE.

The code that was used to produce this language model is available in Open Source.
Please visit http://www.speech.cs.cmu.edu/tools/ for more information

The (fixed) discount mass is 0.5. The backoffs are computed using the ratio method.
This model based on a corpus of 8 sentences and 13 words

\data\
ngram 1=13
ngram 2=19
ngram 3=19

\1-grams:
-0.9661 </s> -0.3010
-0.9661 <s> -0.2447
-1.0241 COBORG -0.2027
-1.8692 GO -0.2513
-1.8692 HOLD -0.2891
-1.8692 HOME -0.2513
-1.8692 LET -0.2951
-1.5682 MOVE -0.2891
-1.5682 STOP -0.2513
-1.8692 TAKE -0.2891
-1.8692 TARGET -0.2513
-1.5682 THIS -0.2513
-1.5682 TO -0.2891

\2-grams:
-0.3590 <s> COBORG 0.0000
-1.2041 <s> STOP 0.0000
-1.1461 COBORG </s> -0.3010
-1.1461 COBORG HOLD 0.0000
-1.1461 COBORG LET 0.0000
-0.8451 COBORG MOVE 0.0000
-1.1461 COBORG STOP 0.0000
-1.1461 COBORG TAKE 0.0000
-0.3010 GO </s> -0.3010
-0.3010 HOLD THIS 0.0000
-0.3010 HOME </s> -0.3010
-0.3010 LET GO 0.0000
-0.3010 MOVE TO 0.0000
-0.3010 STOP </s> -0.3010
-0.3010 TAKE THIS 0.0000
-0.3010 TARGET </s> -0.3010
-0.3010 THIS </s> -0.3010
-0.6021 TO HOME 0.0000
-0.6021 TO TARGET 0.0000

\3-grams:
-1.1461 <s> COBORG </s>
-1.1461 <s> COBORG HOLD
-1.1461 <s> COBORG LET
-0.8451 <s> COBORG MOVE
-1.1461 <s> COBORG STOP
-1.1461 <s> COBORG TAKE
-0.3010 <s> STOP </s>
-0.3010 COBORG HOLD THIS
-0.3010 COBORG LET GO
-0.3010 COBORG MOVE TO
-0.3010 COBORG STOP </s>
-0.3010 COBORG TAKE THIS
-0.3010 HOLD THIS </s>
-0.3010 LET GO </s>
-0.6021 MOVE TO HOME
-0.6021 MOVE TO TARGET
-0.3010 TAKE THIS </s>
-0.3010 TO HOME </s>
-0.3010 TO TARGET </s>

\end\
